0,1,2,3,4,5,6,7,8,9,10,11,12
-0.11973744836496404,0.09280770619858801,-0.9076349852216888,-0.29269701636858114,-0.6635450500962181,-0.31994879484594263,0.06275963731399693,-0.06414967696237268,0.8673298797829185,-0.3925840968482223,1.0606476346050504,0.42784292520573186,-0.5578701111153446
-0.19909111981192096,-0.5460049101291881,-0.521527648661118,0.2536336364056542,-0.23834674737408415,-0.3375642762194744,-0.6917069456686536,0.5741700176991691,0.5379075069286956,-0.4205417181615703,0.5327707134832939,0.3669366574384773,0.312290708189154
-0.12265867768082762,-0.30824592266558587,-0.06030164846326462,0.3282272154323,-0.10034527219918749,-0.2361356299733657,0.5729621189535025,0.6577180365827813,0.3540363092824468,-0.26531268948047515,-0.08584955303541607,0.5462034233894911,-0.5887009395116621
0.05241632519885902,0.32502583563441856,0.6078786983489238,-0.061305434090102195,0.5355851382669115,-0.2827105119235684,-0.18628649174949843,0.20060536652949162,-0.248091179529077,-0.3193549201240731,-0.5625678397266434,-0.5157862471534104,0.46912187243733516
0.05246619080659643,-0.4845239746585129,-0.4661182433612787,-0.8335977559637379,-0.15589397018099893,-0.37389066614225247,0.025165140625400456,0.776054732548393,-0.9477303370245366,-0.9141867250787815,0.7452795195221753,-0.3210647994295807,-0.5819956475681
-0.04660092377453853,0.574213501739712,0.5331021018478175,-0.0012627269762437315,-0.09910873839564624,0.5065425744747095,-0.31810370957565526,-0.39809363123002117,0.3322554227499029,-0.20757367791022455,-0.22270668944683375,0.8331857761274102,-0.1905762611428045
-0.07463991300559218,0.4449960789639859,-0.09328074093977436,-0.17075129821924057,0.09408425708728736,-0.3754070879727236,-0.6158938727570827,0.23143448125167876,-0.4073181967062387,0.7638809799155952,0.3009315389914653,-0.2022512031510738,-0.46663060367639464
3.313499868501083,0.08652915865462271,0.27966345060299375,0.2478001478978642,-1.6813451153902348,0.3237202269118292,0.5623840491663271,0.05478263421633357,0.02083854969578318,-0.16928962567660394,0.1501346397356934,0.04745544404725452,-0.20749536242471847
