0,1,2,3,4,5,6,7,8,9,10,11,12,13,14
-0.7249658324893309,0.2157497808059323,-0.6711070070543145,-0.4617176799558304,-0.44577920886248446,0.18528378071651017,-0.48421329857824347,-0.5304202390851744,-0.20448730611489113,0.07521465433395962,0.0264601198599682,-0.08613161634729023,-0.12304548788040086,0.5912905336236765,-0.20899705993460221
-0.3295052220061101,0.19920175213111868,-0.05023241669391369,-0.6347726557627614,0.010315536403123618,0.1756552917993237,0.11682852091846106,0.10359279368239409,0.11852777754501546,0.5020661956774624,-0.14293514401790536,-0.3122857312694956,-0.6046150439380539,-0.36990337030390025,0.5378854234263927
-0.009752098763000032,0.08998030602249743,0.47792420378272915,-0.36955418081837804,0.2913176474846123,-0.19149464472695105,0.06000806298132149,0.5360329260483435,-0.255288216887811,0.6266469291345307,0.7972773012162101,0.5912563177139137,-0.07539957215003847,0.05979854719911327,-0.5447309276119832
0.04371670000045766,0.19788502443736775,-0.22683029435677357,-0.14063190049723617,-0.198872429235355,-0.7434395187783795,0.05056241361798436,-0.3260290397390974,-0.08995666736597463,0.11570764018378746,-0.611918753107904,0.32777801580545535,0.3788197436777605,-0.14284936365966694,0.11966679016486305
-0.571874820045962,-0.11616569524728382,0.2644167981018278,-0.057251974971321944,-0.7395522100766461,-0.11353452575117119,0.1684989191895931,0.4292613228359284,0.576123517398706,0.3350353048643045,0.40767564541731593,-0.21806996126483721,-0.46443482414070886,0.23216438756771363,-0.39596644305745116
-0.048816686892016764,0.19807190809984637,-0.178387465624408,-0.05667486246025048,0.009156359127564542,0.29463849288022803,-0.23062364807036256,0.30696251561627474,-0.5304131711575223,-0.3130193086824316,0.3099278032219299,0.04058314195744999,0.7581440126545929,-0.1938152365785043,-0.07434411281727624
-0.6887404962578633,0.3359566408673176,-0.2547328879968244,0.20535737191866332,-0.44656417437679563,-0.45548644872059485,-0.26622569842695976,0.29325686551914415,-0.7986864136433821,-0.007635540745803338,-0.12278576503846829,-0.2802735762356426,0.8170508307369758,0.07741090148546387,0.20166274914478394
0.1793438069362844,-1.3425510961434972,0.2044373620284221,-0.205930400658208,0.36418695433951814,-0.5917088027266435,-1.3859433674814159,0.1479501198754357,0.12029481662165012,-0.8425611858629334,0.07142502395194643,0.11925880398777262,0.049930280076605806,0.3333094051321579,-0.295018684103986
